{
  "config": {
    "epochs": 800,
    "hidden_units": 32,
    "learning_rate": 0.01,
    "seed": 42,
    "weight_decay": 0.0001
  },
  "feature_mean": [
    0.9277021288871765,
    -1.73225998878479e-07,
    0.49999988079071045,
    0.9277021288871765,
    0.4297712743282318,
    3.430371364743223e-08,
    0.4275529086589813,
    0.5,
    0.0833333358168602,
    0.0833333358168602,
    0.0833333358168602,
    0.0833333358168602,
    0.0833333358168602,
    0.0833333358168602,
    0.0833333358168602,
    0.0833333358168602,
    0.0833333358168602,
    0.0833333358168602,
    0.0833333358168602,
    0.0833333358168602
  ],
  "feature_scale": [
    0.3710213005542755,
    1.0,
    0.29475319385528564,
    0.10775826126337051,
    0.39022454619407654,
    0.3550281226634979,
    0.38513317704200745,
    0.3726779520511627,
    0.2763853669166565,
    0.2763853669166565,
    0.2763853669166565,
    0.2763853669166565,
    0.2763853669166565,
    0.2763853669166565,
    0.2763853669166565,
    0.2763853967189789,
    0.2763853967189789,
    0.2763853967189789,
    0.2763853967189789,
    0.2763853967189789
  ],
  "group_labels": [
    "A",
    "B",
    "C",
    "D",
    "E",
    "F",
    "G",
    "H",
    "I",
    "J",
    "K",
    "L"
  ],
  "model_version": "tournament_value_network_v1",
  "state_dict": {
    "0.bias": [
      0.2677365243434906,
      -0.08125448226928711,
      0.33220425248146057,
      0.19019941985607147,
      -0.15970651805400848,
      -0.0987493172287941,
      0.02863679826259613,
      0.0008395111071877182,
      -0.12341219186782837,
      0.009798131883144379,
      0.19328652322292328,
      -0.035200390964746475,
      0.0824563279747963,
      -0.08397481590509415,
      0.0939241498708725,
      0.3850695490837097,
      -0.10373346507549286,
      -0.06492680311203003,
      0.05331769958138466,
      0.13963626325130463,
      -0.22767671942710876,
      0.17850105464458466,
      -0.17394211888313293,
      0.07448764890432358,
      -0.05889429524540901,
      -0.09689689427614212,
      0.07542116940021515,
      -0.16425496339797974,
      0.292455792427063,
      -0.1369132101535797,
      -0.044819388538599014,
      -0.01437066774815321
    ],
    "0.weight": [
      [
        0.26141268014907837,
        0.276051789522171,
        -0.17955148220062256,
        0.20793285965919495,
        -0.20934553444385529,
        0.14091339707374573,
        -0.02910633198916912,
        0.18300649523735046,
        0.2507663369178772,
        -0.3860556483268738,
        0.13000333309173584,
        0.0004404239007271826,
        0.07595077157020569,
        -0.07223260402679443,
        0.21923337876796722,
        0.001120846252888441,
        0.11214257031679153,
        0.03401675820350647,
        -0.030923372134566307,
        0.07834983617067337
      ],
      [
        -0.017899055033922195,
        0.05883932486176491,
        -0.20901240408420563,
        0.1729826033115387,
        -0.29262998700141907,
        -0.014559123665094376,
        0.025143995881080627,
        -0.18423588573932648,
        0.06371472030878067,
        -0.34873896837234497,
        0.165289506316185,
        -0.3178579807281494,
        0.14173360168933868,
        -0.05181831493973732,
        -0.20061235129833221,
        0.18943147361278534,
        -0.011679762974381447,
        0.1880747377872467,
        0.07948960363864899,
        -0.09220793098211288
      ],
      [
        -0.04621713235974312,
        -0.16683733463287354,
        0.2125755101442337,
        0.2706146836280823,
        0.37001708149909973,
        -0.21758703887462616,
        0.1107063964009285,
        0.33992907404899597,
        0.24746866524219513,
        -0.24333949387073517,
        -0.32522052526474,
        -0.030656084418296814,
        -0.3359034061431885,
        0.034226320683956146,
        -0.16058604419231415,
        0.3444623053073883,
        0.155292809009552,
        -0.053031135350465775,
        0.0819239541888237,
        -0.18279889225959778
      ],
      [
        0.07502026855945587,
        -0.09154742956161499,
        -0.013414721935987473,
        -0.09361881017684937,
        -0.04029317945241928,
        0.022430017590522766,
        0.2508838176727295,
        -0.21366086602210999,
        -0.08907050639390945,
        -0.024864694103598595,
        0.23366326093673706,
        -0.03284004330635071,
        0.20519761741161346,
        -0.23441192507743835,
        -0.2716398537158966,
        -0.24889719486236572,
        -0.34854814410209656,
        0.1309761255979538,
        0.16861236095428467,
        0.17067155241966248
      ],
      [
        -0.3361329138278961,
        -0.37306079268455505,
        0.3457457721233368,
        -0.07310190051794052,
        0.3460640013217926,
        -0.2683982849121094,
        -0.11635303497314453,
        0.04907069727778435,
        0.09947942197322845,
        0.05730495601892471,
        -0.15956957638263702,
        -0.11597709357738495,
        -0.16815686225891113,
        0.198616623878479,
        -0.2100560963153839,
        0.025535468012094498,
        0.24622687697410583,
        -0.059576015919446945,
        0.059743482619524,
        -0.26002946496009827
      ],
      [
        -0.42413976788520813,
        -0.24037529528141022,
        0.2444857954978943,
        -0.309139609336853,
        0.3317875266075134,
        -0.420360267162323,
        -0.367321640253067,
        0.43488216400146484,
        0.08407549560070038,
        0.10337799042463303,
        0.009975253604352474,
        -0.06505167484283447,
        0.00604590866714716,
        -0.11831753700971603,
        -0.34894466400146484,
        0.14709943532943726,
        0.07011688500642776,
        -0.1499822735786438,
        0.16401344537734985,
        -0.13350000977516174
      ],
      [
        -0.21250976622104645,
        -0.2962642014026642,
        0.22720500826835632,
        -0.07170452177524567,
        0.06495475023984909,
        -0.34368860721588135,
        -0.24217665195465088,
        0.43127182126045227,
        0.06842642277479172,
        -0.08221666514873505,
        0.2600279450416565,
        0.015285092405974865,
        -0.03318352624773979,
        0.0087986895814538,
        0.025946788489818573,
        -0.03376716747879982,
        -0.13855186104774475,
        -0.17173027992248535,
        0.05723267421126366,
        0.09097287803888321
      ],
      [
        -0.11260826885700226,
        -0.38295167684555054,
        0.3562709093093872,
        -0.17364409565925598,
        0.12227866798639297,
        -0.13735167682170868,
        -0.09407833218574524,
        0.3678654134273529,
        0.09810726344585419,
        -0.01418756227940321,
        0.02554485946893692,
        -0.14284463226795197,
        -0.13528212904930115,
        -0.14140841364860535,
        0.2479412704706192,
        -0.16672848165035248,
        0.11065521091222763,
        -0.005807118955999613,
        0.3660365641117096,
        -0.11355002224445343
      ],
      [
        0.006244370248168707,
        -0.14774030447006226,
        0.22244331240653992,
        -0.3115323483943939,
        0.31233492493629456,
        -0.22597594559192657,
        -0.28514307737350464,
        0.5923544764518738,
        0.178157776594162,
        -0.020388755947351456,
        -0.10250092297792435,
        -0.0627213567495346,
        -0.15425416827201843,
        0.07026072591543198,
        -0.23491160571575165,
        0.08295653015375137,
        -0.02614658884704113,
        0.02443523146212101,
        0.21054154634475708,
        -0.09834004938602448
      ],
      [
        0.1436704844236374,
        0.2072031944990158,
        -0.09388413280248642,
        -0.0710248351097107,
        -0.03901872783899307,
        0.21918423473834991,
        0.17840567231178284,
        -0.11425112932920456,
        -0.00044901881483383477,
        0.011460310779511929,
        -0.09266333281993866,
        -0.17725981771945953,
        0.058600470423698425,
        0.09218621999025345,
        -0.04649316892027855,
        -0.007976671680808067,
        0.08405157923698425,
        -0.016648877412080765,
        0.1854761391878128,
        0.08017132431268692
      ],
      [
        -0.35041648149490356,
        -0.22994378209114075,
        0.31784823536872864,
        0.05269186198711395,
        0.10159505158662796,
        -0.25285443663597107,
        -0.20967349410057068,
        -0.06464318186044693,
        0.11336673051118851,
        0.07217718660831451,
        -0.07786472141742706,
        -0.15367385745048523,
        -0.192120760679245,
        0.05313343554735184,
        0.2135390043258667,
        0.12084556370973587,
        0.13261698186397552,
        -0.04453784599900246,
        0.1833123415708542,
        -0.11559469252824783
      ],
      [
        -0.052619121968746185,
        0.25506284832954407,
        -0.23103387653827667,
        -0.03313395380973816,
        -0.3861877918243408,
        0.24942874908447266,
        0.2558055818080902,
        0.08185704052448273,
        -0.10844525694847107,
        -0.20075596868991852,
        -0.19915062189102173,
        0.15778842568397522,
        0.023755351081490517,
        0.08138351887464523,
        0.06899116933345795,
        0.10252100229263306,
        0.08271237462759018,
        -0.13810504972934723,
        -0.18472447991371155,
        -0.1639549881219864
      ],
      [
        -0.03933538869023323,
        -0.24049529433250427,
        0.08012261241674423,
        -0.18738441169261932,
        0.07555052638053894,
        -0.28801843523979187,
        -0.30521926283836365,
        0.24909833073616028,
        0.07551613450050354,
        0.03680642694234848,
        -0.1535504311323166,
        -0.12026435881853104,
        0.014270004816353321,
        0.12980219721794128,
        0.21327900886535645,
        -0.07092630118131638,
        -0.007333488203585148,
        -0.0330059714615345,
        0.03967893123626709,
        -0.07149820029735565
      ],
      [
        0.1005709171295166,
        -0.23042602837085724,
        0.21115298569202423,
        -0.09350642561912537,
        0.12092474848031998,
        0.14911167323589325,
        -0.1138160303235054,
        -0.2756277322769165,
        0.021344702690839767,
        -0.06513826549053192,
        -0.03943882882595062,
        -0.12340851873159409,
        -0.01273153442889452,
        0.2467813342809677,
        0.11477173864841461,
        0.06094307824969292,
        -0.0763055607676506,
        0.028041962534189224,
        0.19803324341773987,
        -0.11848413199186325
      ],
      [
        -0.2332722395658493,
        -0.31649133563041687,
        0.14018882811069489,
        -0.14915265142917633,
        0.04054122418165207,
        -0.2228698432445526,
        -0.37029340863227844,
        0.5124930143356323,
        0.0581941157579422,
        0.19375525414943695,
        -0.17948755621910095,
        -0.2171977013349533,
        -0.26261311769485474,
        -0.13451075553894043,
        0.1603466421365738,
        0.017108028754591942,
        -0.1009141132235527,
        -0.05532330274581909,
        0.2615113854408264,
        -0.17274869978427887
      ],
      [
        0.10987503826618195,
        0.055305324494838715,
        -0.2105417102575302,
        -0.09634792804718018,
        -0.34952160716056824,
        0.2978626489639282,
        0.007544527295976877,
        0.07857859879732132,
        -0.023616522550582886,
        -0.022326964884996414,
        0.11856739223003387,
        0.04522183910012245,
        -0.3307287395000458,
        -0.03619227185845375,
        0.2420799434185028,
        0.10882046073675156,
        0.16785116493701935,
        0.2454289346933365,
        0.0867733508348465,
        0.03970016539096832
      ],
      [
        -0.34919461607933044,
        -0.23995520174503326,
        0.33652257919311523,
        0.031587161123752594,
        0.05207545682787895,
        -0.34232044219970703,
        -0.17936080694198608,
        -0.08575587719678879,
        -0.03677436336874962,
        0.10685954242944717,
        0.15878531336784363,
        -0.13318246603012085,
        -0.13682842254638672,
        -0.07054366171360016,
        -0.05372943356633186,
        -0.021148469299077988,
        0.010324518196284771,
        0.07145377993583679,
        0.11150684952735901,
        -0.04143286868929863
      ],
      [
        0.05508380010724068,
        0.021672740578651428,
        -0.21350647509098053,
        -0.22485783696174622,
        -0.2893485426902771,
        -0.037069909274578094,
        0.2960719168186188,
        -0.18486978113651276,
        -0.11705814301967621,
        0.058108799159526825,
        -0.009227295406162739,
        0.06256891041994095,
        0.1330372542142868,
        0.04756826534867287,
        -0.28380146622657776,
        0.07161282002925873,
        0.2642441987991333,
        -0.03382552042603493,
        -0.27201199531555176,
        0.17401164770126343
      ],
      [
        -0.010206123813986778,
        -0.053843945264816284,
        -0.3007272183895111,
        0.018947036936879158,
        0.0019042404601350427,
        0.12799683213233948,
        0.12689949572086334,
        -0.21508589386940002,
        -0.29811275005340576,
        0.014749251306056976,
        0.15767903625965118,
        -0.03397836536169052,
        -0.14661991596221924,
        -0.089554063975811,
        -0.2541537582874298,
        -0.09353236109018326,
        0.150320366024971,
        0.10949183255434036,
        0.28112977743148804,
        -0.1593184918165207
      ],
      [
        0.19232505559921265,
        -0.11464062333106995,
        0.019085228443145752,
        0.1898513287305832,
        -0.09667888283729553,
        0.25089216232299805,
        -0.15229102969169617,
        -0.12438767403364182,
        0.17571279406547546,
        -0.004600659944117069,
        -0.015587580390274525,
        -0.1175888329744339,
        0.12271043658256531,
        0.05078678950667381,
        0.1395861655473709,
        -0.1550908088684082,
        -0.113480344414711,
        0.040795888751745224,
        0.18387243151664734,
        -0.040293969213962555
      ],
      [
        -0.15088729560375214,
        0.06251992285251617,
        0.08085037767887115,
        0.08158286660909653,
        0.032699618488550186,
        -0.29925426840782166,
        -0.33054983615875244,
        -0.3862232267856598,
        -0.05018700659275055,
        0.10704898089170456,
        -0.018591642379760742,
        0.01594741828739643,
        0.046726521104574203,
        0.17520274221897125,
        -0.03136094659566879,
        -0.0418313629925251,
        -0.021790998056530952,
        0.03474472835659981,
        -0.08302056789398193,
        -0.08160639554262161
      ],
      [
        0.0852581039071083,
        0.01433134637773037,
        -0.2911749482154846,
        0.1672922521829605,
        0.050275955349206924,
        0.13678380846977234,
        0.05838574841618538,
        -0.2766042649745941,
        -0.06461121141910553,
        0.0166856050491333,
        0.06065047159790993,
        -0.11643150448799133,
        -0.14698998630046844,
        0.018062351271510124,
        -0.305726557970047,
        0.20302118360996246,
        -0.08558683842420578,
        0.03952226787805557,
        -0.02935728244483471,
        -0.0037021853495389223
      ],
      [
        -0.34693479537963867,
        -0.11695784330368042,
        0.2840929627418518,
        0.13248302042484283,
        0.3902137577533722,
        -0.33569908142089844,
        -0.3830639123916626,
        0.4674224555492401,
        0.3750239908695221,
        -0.18316411972045898,
        -0.21959593892097473,
        -0.2659657597541809,
        -0.19514355063438416,
        0.29873383045196533,
        -0.21223576366901398,
        0.18907380104064941,
        -0.0696825236082077,
        0.12849688529968262,
        0.4350208640098572,
        -0.08863821625709534
      ],
      [
        -0.18455491960048676,
        -0.11824922263622284,
        0.23638924956321716,
        -0.01740702986717224,
        0.24277688562870026,
        -0.2933675944805145,
        -0.38439592719078064,
        -0.10565102845430374,
        0.09760840237140656,
        0.10457070916891098,
        0.07133441418409348,
        0.2004387527704239,
        0.07767290621995926,
        0.04169395565986633,
        -0.15202227234840393,
        0.19110657274723053,
        -0.056560784578323364,
        -0.0740119144320488,
        0.07916345447301865,
        0.11531273275613785
      ],
      [
        -0.02244993858039379,
        -0.22425127029418945,
        0.02944197505712509,
        -0.12096967548131943,
        -0.07075042277574539,
        -0.26250842213630676,
        -0.006181005854159594,
        0.4293479025363922,
        0.28017356991767883,
        0.30831751227378845,
        0.23622238636016846,
        0.20669321715831757,
        0.07867462933063507,
        0.09788236021995544,
        0.2129959762096405,
        -0.053113192319869995,
        0.029802529141306877,
        0.035082485526800156,
        0.05322244390845299,
        0.04507184028625488
      ],
      [
        -0.05216542258858681,
        -0.10600345581769943,
        0.04032722860574722,
        0.12861575186252594,
        0.1673724204301834,
        0.10624540597200394,
        -0.17839419841766357,
        -0.19262047111988068,
        0.15474557876586914,
        -0.08690866082906723,
        -0.0222537312656641,
        -0.09873178601264954,
        -0.08476284146308899,
        -0.015134399756789207,
        -0.03500426188111305,
        -0.09138283133506775,
        0.09135834127664566,
        -0.07460629194974899,
        0.10846590995788574,
        -0.03427498787641525
      ],
      [
        -0.008436287753283978,
        0.15729185938835144,
        -0.03963744267821312,
        0.09747112542390823,
        0.1289471834897995,
        -0.16774104535579681,
        0.1205497458577156,
        -0.011041244491934776,
        0.01690789684653282,
        0.05309165269136429,
        0.05346917733550072,
        -0.08700908720493317,
        -0.01959400624036789,
        0.2980961203575134,
        0.04497246444225311,
        -0.006459974218159914,
        -0.2546248137950897,
        -0.06987063586711884,
        -0.025010935962200165,
        0.30954018235206604
      ],
      [
        -0.25058111548423767,
        -0.13107402622699738,
        0.06647925823926926,
        -0.014781534671783447,
        0.34785962104797363,
        -0.09928771108388901,
        0.008155607618391514,
        0.4285143315792084,
        0.1151663064956665,
        0.09422659873962402,
        -0.039898645132780075,
        0.098028264939785,
        -0.05865626037120819,
        0.21881558001041412,
        -0.02483331598341465,
        0.06336497515439987,
        0.04443836584687233,
        0.002347127767279744,
        0.18523555994033813,
        0.007708266377449036
      ],
      [
        0.24343207478523254,
        0.3027043342590332,
        -0.12811993062496185,
        -0.20988553762435913,
        -0.33366137742996216,
        -0.03583071753382683,
        -0.11064954847097397,
        -0.19661690294742584,
        -0.14406642317771912,
        -0.2121482491493225,
        -0.22460395097732544,
        -0.2655673921108246,
        -0.19327412545681,
        -0.005924575962126255,
        0.2533378005027771,
        -0.03242841735482216,
        -0.1679239273071289,
        0.10197064280509949,
        0.024280402809381485,
        -0.18220734596252441
      ],
      [
        -0.1197090744972229,
        -0.45204055309295654,
        0.21645541489124298,
        0.0765458419919014,
        0.29816243052482605,
        -0.17128214240074158,
        -0.3158123791217804,
        -0.37328144907951355,
        0.26411813497543335,
        0.10983867198228836,
        -0.06063123419880867,
        0.1303221583366394,
        -0.19132930040359497,
        0.2661932706832886,
        -0.09300541132688522,
        -0.18265536427497864,
        0.0048009296879172325,
        -0.13742613792419434,
        0.17193356156349182,
        -0.043416328728199005
      ],
      [
        -0.33001020550727844,
        -0.09283216297626495,
        -0.009423029609024525,
        -0.04202299937605858,
        0.17590627074241638,
        -0.40340256690979004,
        -0.3520711362361908,
        0.1804802119731903,
        0.11447220295667648,
        0.23345738649368286,
        0.07375998795032501,
        -0.12140203267335892,
        -0.1265818476676941,
        0.3521302342414856,
        -0.14428645372390747,
        0.18426717817783356,
        0.06487918645143509,
        -0.1281292587518692,
        0.07269814610481262,
        0.05214045196771622
      ],
      [
        -0.16953949630260468,
        -0.12564118206501007,
        -0.08249623328447342,
        -0.02568924054503441,
        0.09890266507863998,
        -0.2634873688220978,
        -0.16373874247074127,
        0.29501354694366455,
        0.008052187971770763,
        -0.046120237559080124,
        -0.14823879301548004,
        -0.1253364235162735,
        -0.10740507394075394,
        0.2698199450969696,
        -0.1890833079814911,
        -0.07453009486198425,
        -0.06860635429620743,
        -0.12212512642145157,
        0.029355473816394806,
        -0.14138609170913696
      ]
    ],
    "2.bias": [
      0.16255144774913788,
      0.11671557277441025,
      0.12704700231552124,
      0.041693538427352905,
      0.035023730248212814,
      0.09454572945833206,
      0.33293038606643677,
      0.06578626483678818,
      0.18296590447425842,
      0.11656685173511505,
      0.17982836067676544,
      0.10881416499614716,
      0.15209591388702393,
      0.2726100981235504,
      0.00753557775169611,
      0.24867656826972961,
      -0.07731684297323227,
      0.2243080586194992,
      0.02329416759312153,
      -0.21298258006572723,
      0.12296013534069061,
      -0.12869824469089508,
      0.2557583153247833,
      -0.15773843228816986,
      0.17650341987609863,
      0.2484143078327179,
      -0.2472454160451889,
      -0.08431897312402725,
      0.05939633026719093,
      0.11483518034219742,
      0.017558395862579346,
      0.015249812975525856
    ],
    "2.weight": [
      [
        0.26475709676742554,
        0.12533679604530334,
        0.11057888716459274,
        0.17042206227779388,
        -0.10776488482952118,
        -0.17928428947925568,
        0.07622506469488144,
        -0.0934959203004837,
        0.08789762854576111,
        0.08761924505233765,
        -0.22712072730064392,
        0.1454789787530899,
        -0.2713044285774231,
        0.08515845239162445,
        -0.39994046092033386,
        0.028262600302696228,
        -0.1672288328409195,
        0.003564335172995925,
        0.10706480592489243,
        0.21978892385959625,
        -0.07250366359949112,
        0.22225332260131836,
        -0.022786779329180717,
        0.17749133706092834,
        0.32187026739120483,
        0.1063511073589325,
        -0.09376891702413559,
        0.10705223679542542,
        0.17843873798847198,
        -0.1259586215019226,
        -0.011382527649402618,
        -0.0334622822701931
      ],
      [
        -0.13651250302791595,
        -0.2916994094848633,
        0.2246600091457367,
        0.021446261554956436,
        0.030067289248108864,
        0.24650613963603973,
        -0.03573378548026085,
        0.20180723071098328,
        0.32855767011642456,
        -0.3571140766143799,
        0.28361716866493225,
        0.006783279590308666,
        0.19906377792358398,
        -0.02875366620719433,
        0.09648310393095016,
        -0.21747875213623047,
        0.06437116861343384,
        -0.07464216649532318,
        -0.020656516775488853,
        0.1111593246459961,
        0.12339228391647339,
        -0.09292440116405487,
        0.2530546486377716,
        0.009259108453989029,
        -0.2957310974597931,
        0.01868009753525257,
        0.1509481966495514,
        0.033033229410648346,
        -0.3497796952724457,
        0.3427140414714813,
        0.25272223353385925,
        0.31829074025154114
      ],
      [
        -0.022079039365053177,
        -0.05675856024026871,
        0.2161177098751068,
        0.31240594387054443,
        0.2929783761501312,
        0.2182852178812027,
        0.02113977074623108,
        0.3142198324203491,
        0.14330098032951355,
        -0.03805891051888466,
        0.26777833700180054,
        0.0029215351678431034,
        0.06709534674882889,
        0.2684759795665741,
        0.23788419365882874,
        0.1693609654903412,
        0.030084732919931412,
        0.06958973407745361,
        0.25356584787368774,
        0.02974935807287693,
        0.1726786494255066,
        0.23442603647708893,
        0.07867536693811417,
        0.2950461804866791,
        -0.04442581161856651,
        0.18518632650375366,
        0.05675119906663895,
        0.10146500915288925,
        -0.052596431225538254,
        0.28394511342048645,
        0.20258620381355286,
        -0.08599577844142914
      ],
      [
        -0.02536342851817608,
        0.22355376183986664,
        0.1731063723564148,
        0.13747583329677582,
        -0.12497945874929428,
        -0.13802078366279602,
        0.11314797401428223,
        -0.0960095077753067,
        -0.05263282358646393,
        0.077396459877491,
        -0.07898340374231339,
        0.061027590185403824,
        -0.04261734336614609,
        -0.10995646566152573,
        -0.16487301886081696,
        0.15394024550914764,
        -0.08020929247140884,
        -0.12961560487747192,
        0.15675389766693115,
        0.10243909060955048,
        -0.16053345799446106,
        0.22086700797080994,
        -0.17053788900375366,
        0.13709066808223724,
        0.24981318414211273,
        -0.14627593755722046,
        0.10296551883220673,
        -0.18746857345104218,
        -0.021240757778286934,
        0.09422516077756882,
        -0.11583565920591354,
        0.22177928686141968
      ],
      [
        0.061119403690099716,
        0.11605118960142136,
        0.04678143933415413,
        0.1592382788658142,
        -0.13332276046276093,
        -0.3524585962295532,
        0.20169512927532196,
        0.062012627720832825,
        0.13865013420581818,
        -0.03617434203624725,
        -0.06932801008224487,
        0.13077671825885773,
        0.02281627617776394,
        0.0057009304873645306,
        0.01199106965214014,
        0.053299784660339355,
        0.07736176252365112,
        0.21171510219573975,
        0.015184356831014156,
        0.15627560019493103,
        -0.022112036123871803,
        0.21674440801143646,
        -0.20140090584754944,
        -0.05801530182361603,
        0.10890576243400574,
        0.007020270451903343,
        0.07779312133789062,
        -0.1510476917028427,
        0.17286443710327148,
        -0.03143884241580963,
        0.09858100116252899,
        0.009794969111680984
      ],
      [
        -0.3701992332935333,
        -0.1464547961950302,
        0.15012109279632568,
        0.004312543198466301,
        0.13128642737865448,
        0.26527345180511475,
        0.14001776278018951,
        0.0071884202770888805,
        0.5925888419151306,
        -0.38336142897605896,
        -0.025612061843276024,
        -0.38306862115859985,
        0.07068457454442978,
        0.06448680907487869,
        0.2135249674320221,
        -0.24947431683540344,
        0.17604784667491913,
        -0.06659822911024094,
        0.015308259055018425,
        -0.16402581334114075,
        0.004600809421390295,
        -0.08016471564769745,
        0.16686154901981354,
        0.2696494460105896,
        0.1853906512260437,
        0.32466113567352295,
        0.16569721698760986,
        0.5329908132553101,
        -0.24328187108039856,
        0.13159704208374023,
        0.34220027923583984,
        0.21475178003311157
      ],
      [
        -0.09032987803220749,
        0.13513346016407013,
        0.00100460194516927,
        -0.09390804916620255,
        -0.07222699373960495,
        -0.20510302484035492,
        -0.15835651755332947,
        0.0570039339363575,
        0.03510396555066109,
        0.033901914954185486,
        -0.13507544994354248,
        -0.05265495181083679,
        0.00886083859950304,
        -0.084320567548275,
        0.027978314086794853,
        -0.04669221118092537,
        -0.033216990530490875,
        0.09179152548313141,
        -0.009751909412443638,
        -0.08279351145029068,
        0.06718596071004868,
        0.1778363287448883,
        0.04334039241075516,
        -0.12992432713508606,
        -0.10805340111255646,
        0.05751173943281174,
        -0.1884278804063797,
        -0.10414884984493256,
        -0.029265176504850388,
        -0.03779499605298042,
        0.025305408984422684,
        -0.07716502994298935
      ],
      [
        0.026633067056536674,
        -0.03703496977686882,
        0.1774301826953888,
        -0.01112348586320877,
        0.006190600339323282,
        -0.15775813162326813,
        0.2910647690296173,
        0.08160655945539474,
        0.050922051072120667,
        0.12114771455526352,
        -0.2001480758190155,
        0.10470245033502579,
        0.1433766484260559,
        -0.09536660462617874,
        -0.29994186758995056,
        0.24496610462665558,
        0.15881866216659546,
        0.15311239659786224,
        0.22030815482139587,
        -0.010821390897035599,
        -0.11918089538812637,
        0.11502893269062042,
        -0.21360903978347778,
        0.017604833468794823,
        0.0336257703602314,
        0.09598872065544128,
        -0.08815304189920425,
        -0.04122578725218773,
        0.25317656993865967,
        -0.24945224821567535,
        -0.06599218398332596,
        0.19550520181655884
      ],
      [
        -0.007224982138723135,
        0.009744338691234589,
        0.3738171458244324,
        -0.07753118872642517,
        -0.17394471168518066,
        -0.2516239285469055,
        -0.011339899152517319,
        -0.11898159235715866,
        -0.08441527932882309,
        0.12019513547420502,
        -0.06168263405561447,
        0.016601217910647392,
        -0.1766868680715561,
        -0.05738789215683937,
        -0.39669913053512573,
        0.0001626106386538595,
        -0.07029353827238083,
        0.09926066547632217,
        -0.10617689043283463,
        -0.2090095579624176,
        -0.20160241425037384,
        0.12121246755123138,
        -0.19107317924499512,
        -0.0595971941947937,
        0.26116621494293213,
        0.18922673165798187,
        0.08958528190851212,
        -0.12221361696720123,
        -0.07970507442951202,
        -0.1417418271303177,
        0.17282553017139435,
        0.05209418758749962
      ],
      [
        -0.30251678824424744,
        -0.1494966298341751,
        0.01977507397532463,
        -0.07677541673183441,
        0.14788322150707245,
        0.3595665991306305,
        0.01871597208082676,
        0.08884719759225845,
        0.2741985619068146,
        -0.2221396267414093,
        0.1896529644727707,
        -0.0731036365032196,
        0.17391495406627655,
        0.058049947023391724,
        0.31281182169914246,
        -0.17999202013015747,
        0.036594975739717484,
        -0.04030732065439224,
        0.035999517887830734,
        0.11066851019859314,
        0.235174298286438,
        -0.1948380321264267,
        0.2877371907234192,
        0.29688018560409546,
        -0.3752388656139374,
        0.07614675164222717,
        -0.06676327437162399,
        0.25936102867126465,
        -0.11019334197044373,
        0.20409290492534637,
        0.1442951261997223,
        0.25839492678642273
      ],
      [
        -0.15064933896064758,
        -0.30817803740501404,
        0.32032862305641174,
        -0.08853281289339066,
        0.20803804695606232,
        0.257019579410553,
        -0.09518059343099594,
        0.042075883597135544,
        0.5230685472488403,
        -0.17278249561786652,
        0.066921666264534,
        -0.024438466876745224,
        0.11046011000871658,
        0.1075134202837944,
        0.22154058516025543,
        -0.18533536791801453,
        0.04026827961206436,
        -0.12503981590270996,
        -0.009594565257430077,
        -0.15679863095283508,
        0.26003897190093994,
        -0.07911262661218643,
        0.24360391497612,
        0.23206940293312073,
        -0.3124275803565979,
        0.21249589323997498,
        0.14676278829574585,
        0.3523264527320862,
        -0.33654773235321045,
        0.17406561970710754,
        0.06714945286512375,
        0.24200139939785004
      ],
      [
        0.19690732657909393,
        0.017572909593582153,
        0.16907332837581635,
        -0.059989433735609055,
        -0.07461924850940704,
        -0.28351378440856934,
        0.15441343188285828,
        -0.1650201976299286,
        -0.0510454922914505,
        -0.07749731838703156,
        -0.12031932920217514,
        0.27274850010871887,
        -0.057314664125442505,
        -0.1632523387670517,
        -0.15067258477210999,
        0.0738406702876091,
        -0.15499266982078552,
        0.22745589911937714,
        0.053737711161375046,
        0.0355692133307457,
        -0.17737986147403717,
        -0.02226109802722931,
        -0.07106531411409378,
        0.01703481748700142,
        0.23065859079360962,
        -0.032734937965869904,
        0.13332299888134003,
        -0.11947063356637955,
        -0.028285840526223183,
        -0.158660426735878,
        0.09412118047475815,
        -0.017363058403134346
      ],
      [
        0.04144313931465149,
        -0.05880012735724449,
        0.1819409430027008,
        -0.12225962430238724,
        -0.25208690762519836,
        -0.01634056679904461,
        0.2412615567445755,
        0.1154087632894516,
        -0.1121896430850029,
        0.1342109590768814,
        -0.15362082421779633,
        0.1713525354862213,
        0.06466362625360489,
        0.10473562777042389,
        -0.006754819769412279,
        0.17109976708889008,
        -0.025103967636823654,
        0.13045147061347961,
        -0.033445995301008224,
        0.07481580227613449,
        -0.17450112104415894,
        0.024242542684078217,
        -0.33777159452438354,
        -0.08035163581371307,
        0.12134476006031036,
        0.0053658015094697475,
        -0.13823817670345306,
        -0.23533381521701813,
        0.06194484233856201,
        0.05835684761404991,
        0.0894852876663208,
        0.14013655483722687
      ],
      [
        0.005660381633788347,
        -0.13006070256233215,
        0.07532798498868942,
        0.10094030946493149,
        -0.26095128059387207,
        -0.06346282362937927,
        0.2178267240524292,
        -0.10490170866250992,
        -0.1683609038591385,
        0.2178138941526413,
        -0.048628974705934525,
        0.2173953503370285,
        -0.2775084674358368,
        -0.009917791932821274,
        -0.2994483709335327,
        0.2661585211753845,
        -0.14896276593208313,
        0.1898658573627472,
        0.09103909134864807,
        0.05633515864610672,
        -0.1513156145811081,
        0.12875209748744965,
        -0.18750610947608948,
        -0.19439217448234558,
        0.09243641793727875,
        0.028966020792722702,
        -0.11271493136882782,
        -0.0525466687977314,
        0.01242302916944027,
        0.04062850400805473,
        0.031969621777534485,
        0.06221446022391319
      ],
      [
        -0.2673936188220978,
        -0.282766193151474,
        0.2357177436351776,
        -0.21791847050189972,
        0.3759883642196655,
        0.22580687701702118,
        0.07445479929447174,
        0.28097397089004517,
        0.6277388334274292,
        -0.06726066023111343,
        -0.0676468014717102,
        0.04125501587986946,
        0.08174566179513931,
        -0.04899173229932785,
        0.3380907475948334,
        -0.27881982922554016,
        0.11409752070903778,
        0.03676413372159004,
        -0.22067637741565704,
        -0.10319636762142181,
        0.2720886170864105,
        -0.14995361864566803,
        0.33868512511253357,
        0.018350966274738312,
        -0.1558719277381897,
        -0.025666235014796257,
        -0.012858896516263485,
        0.2063341587781906,
        -0.17399148643016815,
        0.6091474294662476,
        0.029260605573654175,
        0.35274651646614075
      ],
      [
        0.14902327954769135,
        0.07764338701963425,
        -0.15560224652290344,
        -0.019290579482913017,
        0.03541555255651474,
        -0.028860753402113914,
        -0.0962270200252533,
        0.02756616100668907,
        -0.08979259431362152,
        0.15984800457954407,
        0.002700960263609886,
        0.2516069710254669,
        -0.2893248200416565,
        0.03421443700790405,
        -0.2747514843940735,
        0.10456330329179764,
        -0.22779355943202972,
        0.04491941258311272,
        0.0472249798476696,
        -0.03899567574262619,
        -0.15382421016693115,
        0.0706259235739708,
        0.046593911945819855,
        0.007481572218239307,
        0.25350233912467957,
        -0.0729915052652359,
        0.06018693000078201,
        -0.12048952281475067,
        0.09340173006057739,
        -0.06543513387441635,
        -0.25466814637184143,
        -0.17132171988487244
      ],
      [
        0.04600171744823456,
        -0.07201484590768814,
        -0.06296078860759735,
        -0.0977807343006134,
        -0.056693390011787415,
        0.034328483045101166,
        -0.017382383346557617,
        0.08877120912075043,
        0.12440494447946548,
        -0.1292811781167984,
        -0.21633218228816986,
        -0.16642633080482483,
        -0.14821863174438477,
        -0.12524886429309845,
        -0.07786087691783905,
        -0.01957891508936882,
        -0.1824825406074524,
        -0.12243876606225967,
        -0.05282767117023468,
        0.1361723095178604,
        -0.1375008374452591,
        -0.13595625758171082,
        -0.037385597825050354,
        -0.06448879837989807,
        0.2405923455953598,
        0.06845016032457352,
        0.049674730747938156,
        -0.18111075460910797,
        0.14588041603565216,
        0.12352778017520905,
        -0.14452005922794342,
        0.08883468806743622
      ],
      [
        0.23567114770412445,
        0.0510006807744503,
        0.05771598592400551,
        -0.01523514837026596,
        -0.2654724717140198,
        -0.08843961358070374,
        0.13261397182941437,
        -0.20207473635673523,
        0.004180485848337412,
        -0.07125245034694672,
        0.034313302487134933,
        0.2762686312198639,
        -0.06623727083206177,
        -0.20817847549915314,
        -0.039075225591659546,
        0.12799596786499023,
        -0.03358156234025955,
        0.14790469408035278,
        0.19281525909900665,
        -0.05369023606181145,
        -0.14500276744365692,
        0.10928966850042343,
        -0.10236068069934845,
        0.0853816345334053,
        0.07603045552968979,
        -0.14092160761356354,
        -0.016147533431649208,
        -0.14563825726509094,
        0.20847518742084503,
        -0.0764554888010025,
        -0.22615069150924683,
        0.0320105105638504
      ],
      [
        -0.16954585909843445,
        -0.031257737427949905,
        -0.12276004999876022,
        -0.26906582713127136,
        -0.13715045154094696,
        -0.11416531354188919,
        -0.14649264514446259,
        0.05143103003501892,
        -0.1341361254453659,
        0.1802479326725006,
        -0.04706587269902229,
        -0.23779511451721191,
        -0.059078577905893326,
        0.03687669336795807,
        -0.2162351906299591,
        -0.2115897536277771,
        0.07704707980155945,
        0.19549289345741272,
        -0.18279330432415009,
        0.010089178569614887,
        -0.1322505623102188,
        -0.2507574260234833,
        -0.0839860588312149,
        -0.0352022722363472,
        -0.15117265284061432,
        -0.034437038004398346,
        -0.24253277480602264,
        0.025032509118318558,
        0.04380693659186363,
        0.004759948700666428,
        -0.08114057779312134,
        -0.04028381034731865
      ],
      [
        -0.2197340577840805,
        -0.09604253619909286,
        -0.1147516742348671,
        -0.17339949309825897,
        -0.23148195445537567,
        0.01952473260462284,
        0.03869038447737694,
        -0.24115890264511108,
        -0.021989693865180016,
        -0.004035798367112875,
        0.07100368291139603,
        -0.0013629806926473975,
        0.07271058857440948,
        -0.14670132100582123,
        0.03739205002784729,
        0.058384042233228683,
        -0.252313494682312,
        -0.248571515083313,
        -0.02582492120563984,
        0.017370400950312614,
        -0.17695371806621552,
        -0.08311782777309418,
        -0.09972298890352249,
        -0.04566328972578049,
        -0.19019825756549835,
        0.01731354370713234,
        0.031132211908698082,
        -0.20834633708000183,
        -0.07650290429592133,
        -0.09067582339048386,
        -0.03997381031513214,
        0.0726139098405838
      ],
      [
        0.08325669169425964,
        -0.052404265850782394,
        0.23592914640903473,
        -0.09067147970199585,
        -0.11654970049858093,
        -0.10667077451944351,
        -0.030114272609353065,
        -0.048575110733509064,
        -0.13123415410518646,
        0.027157310396432877,
        -0.07526060938835144,
        0.059414081275463104,
        -0.2902388572692871,
        -0.21117565035820007,
        -0.0703200176358223,
        0.1788424849510193,
        -0.14438363909721375,
        0.08397737145423889,
        -0.13259781897068024,
        0.008585280738770962,
        0.10607299953699112,
        0.1294441968202591,
        -0.1839303970336914,
        0.12380468100309372,
        0.26962989568710327,
        0.008059708401560783,
        0.1525428593158722,
        -0.09908989816904068,
        -0.027384212240576744,
        -0.094134621322155,
        0.0028030502144247293,
        0.12112673372030258
      ],
      [
        -0.02583215944468975,
        -0.15543018281459808,
        -0.05609510838985443,
        -0.08374059945344925,
        -0.20885397493839264,
        -0.1320037543773651,
        0.14539563655853271,
        0.005531310569494963,
        0.03184037655591965,
        -0.03176557645201683,
        0.020772170275449753,
        -0.04475143924355507,
        -0.204279363155365,
        0.1806279718875885,
        -0.008353495970368385,
        -0.08130652457475662,
        -0.13114623725414276,
        0.00295346905477345,
        -0.2838853895664215,
        -0.06240663677453995,
        0.15096412599086761,
        -0.18911150097846985,
        -0.28890302777290344,
        -0.09323303401470184,
        0.1966937929391861,
        -0.006601047236472368,
        -0.11852413415908813,
        0.20720963180065155,
        -0.09527911990880966,
        -0.3012971580028534,
        0.0681251809000969,
        0.10739631205797195
      ],
      [
        0.28169262409210205,
        0.05747361108660698,
        0.3438408076763153,
        0.18409590423107147,
        0.08581437170505524,
        -0.2818918526172638,
        0.3075038194656372,
        -0.14798098802566528,
        0.15588471293449402,
        0.07699013501405716,
        -0.28334933519363403,
        0.15869353711605072,
        -0.23809920251369476,
        -0.2164667695760727,
        -0.2686510682106018,
        0.12242171913385391,
        0.12124478071928024,
        0.040861766785383224,
        0.17697760462760925,
        0.0911848396062851,
        -0.08048107475042343,
        0.10536715388298035,
        -0.19751013815402985,
        -0.05246558040380478,
        0.09619215130805969,
        -0.11380384117364883,
        -0.08507128804922104,
        -0.06492576748132706,
        -0.022909091785550117,
        -0.16927821934223175,
        0.006914537400007248,
        0.05625292286276817
      ],
      [
        -0.18730828166007996,
        -0.05151921138167381,
        -0.11961520463228226,
        -0.016339484602212906,
        -0.07161223143339157,
        -0.16188323497772217,
        -0.13734741508960724,
        -0.08201345056295395,
        -0.1930888444185257,
        -0.04617259278893471,
        -0.09488873928785324,
        0.008523965254426003,
        -0.041466958820819855,
        0.06044444441795349,
        -0.0736064612865448,
        -0.19052158296108246,
        0.010879636742174625,
        -0.17938344180583954,
        -0.11480235308408737,
        -0.13479293882846832,
        -0.12702524662017822,
        -0.12535245716571808,
        0.07963678240776062,
        0.04110870137810707,
        -0.011679249815642834,
        0.07565560936927795,
        -0.22007551789283752,
        -0.0546097569167614,
        0.053071003407239914,
        0.02710692770779133,
        -0.20057706534862518,
        0.0028552215080708265
      ],
      [
        -0.08746801316738129,
        0.07485383749008179,
        0.08768728375434875,
        -0.03765640780329704,
        0.025865325704216957,
        0.0751141905784607,
        0.060782648622989655,
        0.22869917750358582,
        0.12615880370140076,
        -0.02576328068971634,
        0.1470555067062378,
        -0.05948654189705849,
        0.26953625679016113,
        0.3017909824848175,
        0.2125522494316101,
        -0.07231342047452927,
        0.14541642367839813,
        0.11033451557159424,
        0.19795255362987518,
        0.01329131331294775,
        0.01548937801271677,
        0.19096273183822632,
        0.20207202434539795,
        0.05976555123925209,
        -0.048018887639045715,
        0.12920880317687988,
        0.24496248364448547,
        0.16901767253875732,
        0.2144409567117691,
        0.33494505286216736,
        0.1768369972705841,
        0.1265881359577179
      ],
      [
        0.09537433832883835,
        0.17934052646160126,
        0.08504582941532135,
        0.14744515717029572,
        -0.021824641153216362,
        -0.006295733619481325,
        0.24354033172130585,
        -0.1192060112953186,
        0.09895753115415573,
        0.17987078428268433,
        -0.2416589856147766,
        -0.0025702218990772963,
        -0.18952584266662598,
        -0.12991668283939362,
        -0.10259872674942017,
        0.22141069173812866,
        -0.06270815432071686,
        0.2619381248950958,
        0.0002528201730456203,
        -0.019896775484085083,
        -0.16697092354297638,
        -0.04996177554130554,
        -0.18311843276023865,
        -0.05099772289395332,
        -0.013709014281630516,
        0.10739953070878983,
        0.08951463550329208,
        0.0868145152926445,
        0.2414364367723465,
        -0.04624166339635849,
        0.01955282874405384,
        0.023501919582486153
      ],
      [
        0.09533904492855072,
        -0.2431691288948059,
        -0.0023475149646401405,
        -0.14950506389141083,
        -0.06440354883670807,
        -0.05227717384696007,
        -0.1544468104839325,
        0.025999559089541435,
        -0.0058343615382909775,
        0.16071556508541107,
        -0.08255142718553543,
        0.1564752459526062,
        0.005311358254402876,
        -0.029387975111603737,
        0.017880883067846298,
        -0.09039019048213959,
        0.0028858869336545467,
        0.10779309272766113,
        -0.0020892855245620012,
        0.040978752076625824,
        -0.07246275991201401,
        -0.11279837787151337,
        -0.13114476203918457,
        -0.05506684631109238,
        0.10841793566942215,
        -0.09939900040626526,
        -0.01765419729053974,
        0.00761453015729785,
        -0.17062102258205414,
        -0.11317981034517288,
        -0.138637974858284,
        -0.19353562593460083
      ],
      [
        0.03312385827302933,
        -0.033094633370637894,
        -0.04644109681248665,
        0.08546736091375351,
        0.1403597742319107,
        0.32637763023376465,
        0.06230507418513298,
        0.3055378496646881,
        0.18616506457328796,
        0.061003632843494415,
        0.18942119181156158,
        0.08843548595905304,
        -0.003960675094276667,
        -0.0021221202332526445,
        0.1354697197675705,
        0.015494879335165024,
        0.10786453634500504,
        0.1022438257932663,
        0.1837167739868164,
        0.08907297253608704,
        -0.07244546711444855,
        -0.09384039044380188,
        0.07928814738988876,
        -0.05685746669769287,
        0.08383380621671677,
        0.23915909230709076,
        0.22445213794708252,
        0.10010333359241486,
        -0.007647704798728228,
        0.027140185236930847,
        0.12200838327407837,
        0.04585970565676689
      ],
      [
        0.10410428792238235,
        0.06461212038993835,
        0.23933528363704681,
        0.14448469877243042,
        -0.16587667167186737,
        -0.2685888409614563,
        0.26494652032852173,
        0.1548738330602646,
        -0.06158965453505516,
        0.15527381002902985,
        0.0076072500087320805,
        0.08237027376890182,
        -0.010318921878933907,
        -0.0027701742947101593,
        -0.24624957144260406,
        0.14841394126415253,
        0.10243096202611923,
        0.19904528558254242,
        0.08094461262226105,
        0.09311621636152267,
        -0.048119522631168365,
        0.2049415111541748,
        -0.24807757139205933,
        0.15795569121837616,
        0.19937248528003693,
        -0.11524564772844315,
        0.13028039038181305,
        -0.08964098244905472,
        0.045478519052267075,
        -0.21186988055706024,
        -0.07537087053060532,
        0.19679366052150726
      ],
      [
        -0.3349703252315521,
        -0.04296440631151199,
        0.03267256170511246,
        -0.1053975448012352,
        0.21620170772075653,
        0.3360407054424286,
        -0.13252636790275574,
        0.17393758893013,
        0.48812639713287354,
        -0.021390212699770927,
        0.13280346989631653,
        -0.030217980965971947,
        0.020171109586954117,
        0.022149840369820595,
        0.3196738064289093,
        -0.2861395478248596,
        0.08259544521570206,
        -0.14305610954761505,
        0.02473052218556404,
        -0.20292508602142334,
        0.0892706960439682,
        -0.1549174189567566,
        0.29420986771583557,
        0.21087081730365753,
        -0.0244453102350235,
        0.15685753524303436,
        0.14671020209789276,
        0.12130801379680634,
        -0.11303701996803284,
        0.3182535767555237,
        0.28788310289382935,
        0.13938994705677032
      ],
      [
        -0.11179105937480927,
        -0.0480097196996212,
        -0.22585202753543854,
        -0.23249037563800812,
        -0.25677692890167236,
        -0.07967717200517654,
        0.012596909888088703,
        -0.06940863281488419,
        -0.08976111561059952,
        -0.005773141980171204,
        -0.2179705947637558,
        -0.0581585168838501,
        -0.1477598249912262,
        -0.18963131308555603,
        0.041003987193107605,
        -0.23138628900051117,
        -0.07588041573762894,
        -0.171239972114563,
        -0.09486883133649826,
        -0.1657126396894455,
        -0.044284261763095856,
        -0.1777268350124359,
        0.009572168812155724,
        -0.2572721540927887,
        0.0031215273775160313,
        -0.2179049551486969,
        0.0065384129993617535,
        -0.17821207642555237,
        -0.09400444477796555,
        -0.10172709822654724,
        0.002903612097725272,
        -0.02411816082894802
      ],
      [
        -0.06015489250421524,
        0.06751490384340286,
        0.08454950898885727,
        0.16892150044441223,
        0.06116120144724846,
        -0.25974419713020325,
        0.011360722593963146,
        0.1560104936361313,
        -0.08735643327236176,
        0.16370631754398346,
        0.03727845475077629,
        0.2132187932729721,
        0.20389394462108612,
        -0.07392024993896484,
        -0.02660914696753025,
        0.04459034651517868,
        -0.06595160067081451,
        0.06831854581832886,
        0.16589859127998352,
        0.1823706328868866,
        0.029097577556967735,
        0.15475574135780334,
        -0.2520705461502075,
        -0.018478207290172577,
        0.007633959408849478,
        0.09143190830945969,
        -0.06672966480255127,
        -0.10280517488718033,
        0.21947839856147766,
        0.0003088191442657262,
        -0.03863783925771713,
        0.08713942021131516
      ]
    ],
    "4.bias": [
      0.3926602900028229
    ],
    "4.weight": [
      [
        0.10979622602462769,
        -0.2723425626754761,
        -0.19984973967075348,
        0.18507297337055206,
        0.1102030947804451,
        -0.3168320655822754,
        -0.03582478687167168,
        0.10687223821878433,
        0.06551405042409897,
        -0.23199313879013062,
        -0.4370914399623871,
        0.18652451038360596,
        0.06414209306240082,
        0.15649786591529846,
        -0.2502845823764801,
        0.14527614414691925,
        0.03560714051127434,
        0.18036164343357086,
        -0.053631413727998734,
        0.09602772444486618,
        0.06181003898382187,
        0.10412411391735077,
        0.255657434463501,
        0.0987514927983284,
        -0.1695939004421234,
        0.22407180070877075,
        -0.03184929117560387,
        -0.05876149609684944,
        0.2234145998954773,
        -0.30596354603767395,
        0.025907602161169052,
        0.19415532052516937
      ]
    ]
  }
}